FANN_FLO_2.1
num_layers=3
learning_rate=0.700000
connection_rate=1.000000
network_type=0
learning_momentum=0.000000
training_algorithm=2
train_error_function=1
train_stop_function=0
cascade_output_change_fraction=0.010000
quickprop_decay=-0.000100
quickprop_mu=1.750000
rprop_increase_factor=1.200000
rprop_decrease_factor=0.500000
rprop_delta_min=0.000000
rprop_delta_max=50.000000
rprop_delta_zero=0.100000
cascade_output_stagnation_epochs=12
cascade_candidate_change_fraction=0.010000
cascade_candidate_stagnation_epochs=12
cascade_max_out_epochs=150
cascade_max_cand_epochs=150
cascade_num_candidate_groups=2
bit_fail_limit=3.49999994039535522461e-01
cascade_candidate_limit=1.00000000000000000000e+03
cascade_weight_multiplier=4.00000005960464477539e-01
cascade_activation_functions_count=10
cascade_activation_functions=3 5 7 8 10 11 14 15 16 17 
cascade_activation_steepnesses_count=4
cascade_activation_steepnesses=2.50000000000000000000e-01 5.00000000000000000000e-01 7.50000000000000000000e-01 1.00000000000000000000e+00 
layer_sizes=27 4 4 
scale_included=0
neurons (num_inputs, activation_function, activation_steepness)=(0, 0, 0.00000000000000000000e+00) (0, 0, 0.00000000000000000000e+00) (0, 0, 0.00000000000000000000e+00) (0, 0, 0.00000000000000000000e+00) (0, 0, 0.00000000000000000000e+00) (0, 0, 0.00000000000000000000e+00) (0, 0, 0.00000000000000000000e+00) (0, 0, 0.00000000000000000000e+00) (0, 0, 0.00000000000000000000e+00) (0, 0, 0.00000000000000000000e+00) (0, 0, 0.00000000000000000000e+00) (0, 0, 0.00000000000000000000e+00) (0, 0, 0.00000000000000000000e+00) (0, 0, 0.00000000000000000000e+00) (0, 0, 0.00000000000000000000e+00) (0, 0, 0.00000000000000000000e+00) (0, 0, 0.00000000000000000000e+00) (0, 0, 0.00000000000000000000e+00) (0, 0, 0.00000000000000000000e+00) (0, 0, 0.00000000000000000000e+00) (0, 0, 0.00000000000000000000e+00) (0, 0, 0.00000000000000000000e+00) (0, 0, 0.00000000000000000000e+00) (0, 0, 0.00000000000000000000e+00) (0, 0, 0.00000000000000000000e+00) (0, 0, 0.00000000000000000000e+00) (0, 0, 0.00000000000000000000e+00) (27, 5, 5.00000000000000000000e-01) (27, 5, 5.00000000000000000000e-01) (27, 5, 5.00000000000000000000e-01) (0, 5, 0.00000000000000000000e+00) (4, 5, 5.00000000000000000000e-01) (4, 5, 5.00000000000000000000e-01) (4, 5, 5.00000000000000000000e-01) (0, 5, 0.00000000000000000000e+00) 
connections (connected_to_neuron, weight)=(0, 2.55994749069213867188e+00) (1, 4.06212121248245239258e-01) (2, -4.82576102018356323242e-01) (3, -8.12200069427490234375e+00) (4, -5.90104722976684570312e+00) (5, 1.36304426193237304688e+00) (6, 6.83498764038085937500e+00) (7, -3.58692479133605957031e+00) (8, 6.94719612598419189453e-01) (9, -2.69665980339050292969e+00) (10, -6.50916635990142822266e-01) (11, 3.39603662490844726562e-01) (12, 1.18311321735382080078e+00) (13, 2.66889810562133789062e+00) (14, 2.64592051506042480469e+00) (15, 6.59130156040191650391e-01) (16, 1.05212005615234375000e+02) (17, -5.08552026748657226562e+00) (18, -2.89633655548095703125e+00) (19, -2.18387508392333984375e+00) (20, -2.42474511265754699707e-01) (21, 4.88246297836303710938e+00) (22, 7.39797782897949218750e+00) (23, 5.61014175415039062500e+00) (24, 7.12260782718658447266e-01) (25, 4.17407493591308593750e+01) (26, 3.49736213684082031250e-01) (0, -2.89168715476989746094e-01) (1, -8.11517333984375000000e+00) (2, 1.13231306076049804688e+01) (3, -4.92537450790405273438e+00) (4, -3.82070273160934448242e-01) (5, 1.11060523986816406250e+01) (6, 6.47034168243408203125e+00) (7, 2.14598655700683593750e+00) (8, -6.74129247665405273438e-01) (9, -1.59593933105468750000e+02) (10, 4.68230307102203369141e-01) (11, 7.82947361469268798828e-01) (12, -1.55343711376190185547e+00) (13, 6.23894214630126953125e-01) (14, 1.11447629928588867188e+01) (15, 2.59244553744792938232e-02) (16, 2.72962741851806640625e+01) (17, -2.33908414840698242188e+00) (18, -1.41231611371040344238e-01) (19, 2.32913088798522949219e+00) (20, -2.11050248146057128906e+00) (21, -5.40553748607635498047e-01) (22, 2.80904364585876464844e+00) (23, -1.06347918510437011719e+00) (24, 1.53506278991699218750e+00) (25, -3.59916925430297851562e+00) (26, -5.51045536994934082031e-01) (0, 9.89601075649261474609e-01) (1, 1.57783937454223632812e+00) (2, -2.17867088317871093750e+00) (3, -2.93349313735961914062e+00) (4, -4.80488204956054687500e+00) (5, -1.72336685657501220703e+00) (6, 3.05719566345214843750e+00) (7, -4.29456758499145507812e+00) (8, 8.56050968170166015625e-01) (9, -4.58087682723999023438e+00) (10, -1.30299255251884460449e-02) (11, -4.22063648700714111328e-01) (12, 1.25948226451873779297e+00) (13, 1.41985988616943359375e+00) (14, 2.27013325691223144531e+00) (15, -5.08912515640258789062e+00) (16, -1.57326461791992187500e+02) (17, -2.80240511894226074219e+00) (18, -2.22247147560119628906e+00) (19, -2.81085348129272460938e+00) (20, 6.54906928539276123047e-01) (21, 2.40140247344970703125e+01) (22, -4.52309846878051757812e-03) (23, 2.14941358566284179688e+00) (24, 2.80668050050735473633e-01) (25, 8.89312438964843750000e+01) (26, 5.09362295269966125488e-03) (27, -6.92135035991668701172e-01) (28, 2.45883488655090332031e+00) (29, -4.31901073455810546875e+00) (30, 6.41232430934906005859e-01) (27, 4.43465375900268554688e+00) (28, 9.44792211055755615234e-01) (29, 6.16094827651977539062e-01) (30, 3.87240916490554809570e-01) (27, 1.39776200056076049805e-01) (28, -4.48950672149658203125e+00) (29, -1.15487360954284667969e+00) (30, 1.08388471603393554688e+00) 
