FANN_FLO_2.1
num_layers=3
learning_rate=0.700000
connection_rate=1.000000
network_type=0
learning_momentum=0.000000
training_algorithm=2
train_error_function=1
train_stop_function=0
cascade_output_change_fraction=0.010000
quickprop_decay=-0.000100
quickprop_mu=1.750000
rprop_increase_factor=1.200000
rprop_decrease_factor=0.500000
rprop_delta_min=0.000000
rprop_delta_max=50.000000
rprop_delta_zero=0.100000
cascade_output_stagnation_epochs=12
cascade_candidate_change_fraction=0.010000
cascade_candidate_stagnation_epochs=12
cascade_max_out_epochs=150
cascade_max_cand_epochs=150
cascade_num_candidate_groups=2
bit_fail_limit=3.49999994039535522461e-01
cascade_candidate_limit=1.00000000000000000000e+03
cascade_weight_multiplier=4.00000005960464477539e-01
cascade_activation_functions_count=10
cascade_activation_functions=3 5 7 8 10 11 14 15 16 17 
cascade_activation_steepnesses_count=4
cascade_activation_steepnesses=2.50000000000000000000e-01 5.00000000000000000000e-01 7.50000000000000000000e-01 1.00000000000000000000e+00 
layer_sizes=65 4 3 
scale_included=0
neurons (num_inputs, activation_function, activation_steepness)=(0, 0, 0.00000000000000000000e+00) (0, 0, 0.00000000000000000000e+00) (0, 0, 0.00000000000000000000e+00) (0, 0, 0.00000000000000000000e+00) (0, 0, 0.00000000000000000000e+00) (0, 0, 0.00000000000000000000e+00) (0, 0, 0.00000000000000000000e+00) (0, 0, 0.00000000000000000000e+00) (0, 0, 0.00000000000000000000e+00) (0, 0, 0.00000000000000000000e+00) (0, 0, 0.00000000000000000000e+00) (0, 0, 0.00000000000000000000e+00) (0, 0, 0.00000000000000000000e+00) (0, 0, 0.00000000000000000000e+00) (0, 0, 0.00000000000000000000e+00) (0, 0, 0.00000000000000000000e+00) (0, 0, 0.00000000000000000000e+00) (0, 0, 0.00000000000000000000e+00) (0, 0, 0.00000000000000000000e+00) (0, 0, 0.00000000000000000000e+00) (0, 0, 0.00000000000000000000e+00) (0, 0, 0.00000000000000000000e+00) (0, 0, 0.00000000000000000000e+00) (0, 0, 0.00000000000000000000e+00) (0, 0, 0.00000000000000000000e+00) (0, 0, 0.00000000000000000000e+00) (0, 0, 0.00000000000000000000e+00) (0, 0, 0.00000000000000000000e+00) (0, 0, 0.00000000000000000000e+00) (0, 0, 0.00000000000000000000e+00) (0, 0, 0.00000000000000000000e+00) (0, 0, 0.00000000000000000000e+00) (0, 0, 0.00000000000000000000e+00) (0, 0, 0.00000000000000000000e+00) (0, 0, 0.00000000000000000000e+00) (0, 0, 0.00000000000000000000e+00) (0, 0, 0.00000000000000000000e+00) (0, 0, 0.00000000000000000000e+00) (0, 0, 0.00000000000000000000e+00) (0, 0, 0.00000000000000000000e+00) (0, 0, 0.00000000000000000000e+00) (0, 0, 0.00000000000000000000e+00) (0, 0, 0.00000000000000000000e+00) (0, 0, 0.00000000000000000000e+00) (0, 0, 0.00000000000000000000e+00) (0, 0, 0.00000000000000000000e+00) (0, 0, 0.00000000000000000000e+00) (0, 0, 0.00000000000000000000e+00) (0, 0, 0.00000000000000000000e+00) (0, 0, 0.00000000000000000000e+00) (0, 0, 0.00000000000000000000e+00) (0, 0, 0.00000000000000000000e+00) (0, 0, 0.00000000000000000000e+00) (0, 0, 0.00000000000000000000e+00) (0, 0, 0.00000000000000000000e+00) (0, 0, 0.00000000000000000000e+00) (0, 0, 0.00000000000000000000e+00) (0, 0, 0.00000000000000000000e+00) (0, 0, 0.00000000000000000000e+00) (0, 0, 0.00000000000000000000e+00) (0, 0, 0.00000000000000000000e+00) (0, 0, 0.00000000000000000000e+00) (0, 0, 0.00000000000000000000e+00) (0, 0, 0.00000000000000000000e+00) (0, 0, 0.00000000000000000000e+00) (65, 5, 5.00000000000000000000e-01) (65, 5, 5.00000000000000000000e-01) (65, 5, 5.00000000000000000000e-01) (0, 5, 0.00000000000000000000e+00) (4, 5, 5.00000000000000000000e-01) (4, 5, 5.00000000000000000000e-01) (0, 5, 0.00000000000000000000e+00) 
connections (connected_to_neuron, weight)=(0, 1.35689020156860351562e+01) (1, 8.17032852172851562500e+01) (2, 8.62797424316406250000e+02) (3, 1.50000000000000000000e+03) (4, -6.49899139404296875000e+01) (5, -5.51180175781250000000e+02) (6, -1.50000000000000000000e+03) (7, -1.40683630371093750000e+03) (8, 1.19667968750000000000e+03) (9, 1.49914172363281250000e+03) (10, 1.50000000000000000000e+03) (11, -1.49997485351562500000e+03) (12, -1.40683630371093750000e+03) (13, 1.50000000000000000000e+03) (14, 1.50000000000000000000e+03) (15, -1.39008203125000000000e+03) (16, -1.37222518920898437500e+01) (17, -1.88340118408203125000e+02) (18, 1.50000000000000000000e+03) (19, 1.50000000000000000000e+03) (20, -9.55691452026367187500e+01) (21, 3.73284492492675781250e+01) (22, -1.09914466857910156250e+02) (23, -1.50000000000000000000e+03) (24, -5.87604522705078125000e+01) (25, 1.50000000000000000000e+03) (26, -3.44400634765625000000e+02) (27, -1.50000000000000000000e+03) (28, 1.42175122070312500000e+03) (29, 1.50000000000000000000e+03) (30, 1.47786584472656250000e+03) (31, -1.35183508300781250000e+03) (32, -3.74002288818359375000e+02) (33, 1.50000000000000000000e+03) (34, 1.50000000000000000000e+03) (35, 1.50000000000000000000e+03) (36, 2.38343563079833984375e+01) (37, 9.98498535156250000000e+00) (38, -8.74333129882812500000e+02) (39, -1.49999230957031250000e+03) (40, -2.13620712280273437500e+02) (41, 2.05204925537109375000e+01) (42, 3.61497383117675781250e+01) (43, 3.42855621337890625000e+02) (44, -1.50000000000000000000e+03) (45, 1.49995422363281250000e+03) (46, 1.50000000000000000000e+03) (47, -2.64785034179687500000e+02) (48, 3.36831016540527343750e+01) (49, -1.49674487304687500000e+03) (50, 1.50000000000000000000e+03) (51, 1.50000000000000000000e+03) (52, 7.71213722229003906250e+00) (53, 5.60379882812500000000e+02) (54, 1.49792675781250000000e+03) (55, -1.49999230957031250000e+03) (56, 3.45539276123046875000e+02) (57, 2.21727981567382812500e+01) (58, -1.23020620346069335938e+01) (59, -4.88951759338378906250e+01) (60, -8.64389648437500000000e+02) (61, -1.02371124267578125000e+02) (62, 3.08790168762207031250e+01) (63, 4.31818103790283203125e+00) (64, -3.21363258361816406250e+00) (0, -3.86123847961425781250e+01) (1, -4.90692718505859375000e+02) (2, -1.26106469726562500000e+03) (3, 1.50000000000000000000e+03) (4, 1.34508560180664062500e+02) (5, -9.73885375976562500000e+02) (6, -1.50000000000000000000e+03) (7, 1.49787854003906250000e+03) (8, -9.82706054687500000000e+02) (9, -1.44741723632812500000e+03) (10, -1.50000000000000000000e+03) (11, 1.49999719238281250000e+03) (12, 1.49787854003906250000e+03) (13, 1.50000000000000000000e+03) (14, 1.50000000000000000000e+03) (15, 1.49787854003906250000e+03) (16, -2.79978546142578125000e+02) (17, -1.49921435546875000000e+03) (18, 1.50000000000000000000e+03) (19, 1.50000000000000000000e+03) (20, -1.36123092651367187500e+02) (21, 1.13594055175781250000e+02) (22, -1.50000000000000000000e+03) (23, -1.49703491210937500000e+03) (24, 1.49032531738281250000e+03) (25, 1.50000000000000000000e+03) (26, -3.61122100830078125000e+02) (27, -1.50000000000000000000e+03) (28, -1.26204370117187500000e+03) (29, -1.50000000000000000000e+03) (30, -1.38990026855468750000e+03) (31, 1.40293554687500000000e+03) (32, 3.43714233398437500000e+02) (33, -1.18594836425781250000e+03) (34, 1.50000000000000000000e+03) (35, 1.50000000000000000000e+03) (36, -1.65133056640625000000e+02) (37, -1.11680999755859375000e+02) (38, 7.49067504882812500000e+02) (39, 4.14211547851562500000e+02) (40, -1.50000000000000000000e+03) (41, 1.19922004699707031250e+02) (42, 1.34200317382812500000e+02) (43, -6.45658203125000000000e+02) (44, 1.50000000000000000000e+03) (45, -1.49550170898437500000e+03) (46, -6.03713684082031250000e+02) (47, -1.16946838378906250000e+03) (48, 1.49115930175781250000e+03) (49, 1.49999621582031250000e+03) (50, 1.50000000000000000000e+03) (51, 1.50000000000000000000e+03) (52, -1.50000000000000000000e+03) (53, 1.49999194335937500000e+03) (54, 1.72565551757812500000e+02) (55, 4.14211547851562500000e+02) (56, 2.62099761962890625000e+02) (57, 1.22429028320312500000e+03) (58, 1.49985302734375000000e+03) (59, 3.91110260009765625000e+02) (60, 1.49980847167968750000e+03) (61, 1.50000000000000000000e+03) (62, 1.03794470214843750000e+03) (63, -8.32490921020507812500e+01) (64, -3.10219454765319824219e+00) (0, 1.59472332000732421875e+01) (1, -8.14368438720703125000e+01) (2, -1.48741101074218750000e+03) (3, 1.50000000000000000000e+03) (4, -1.99171035766601562500e+02) (5, 8.15886688232421875000e+01) (6, -1.17934106445312500000e+03) (7, 1.49954541015625000000e+03) (8, 7.86015075683593750000e+02) (9, -1.48041943359375000000e+03) (10, -1.50000000000000000000e+03) (11, 1.49999377441406250000e+03) (12, 1.49954541015625000000e+03) (13, 1.50000000000000000000e+03) (14, 1.50000000000000000000e+03) (15, 1.49996447753906250000e+03) (16, -1.40555763244628906250e+01) (17, -1.48104522705078125000e+02) (18, 1.50000000000000000000e+03) (19, 1.50000000000000000000e+03) (20, 1.69306201934814453125e+01) (21, -5.06031179428100585938e+00) (22, 1.42676925659179687500e+02) (23, 1.49998510742187500000e+03) (24, 7.91130447387695312500e+01) (25, 4.85200073242187500000e+02) (26, 3.30370521545410156250e+01) (27, -4.02781646728515625000e+02) (28, 1.23966845703125000000e+03) (29, -1.08680065917968750000e+03) (30, 1.38395043945312500000e+03) (31, -7.34477722167968750000e+02) (32, 5.37551765441894531250e+01) (33, -1.14606616210937500000e+03) (34, 1.50000000000000000000e+03) (35, 1.50000000000000000000e+03) (36, 4.02006483078002929688e+00) (37, -3.58679618835449218750e+01) (38, -1.14742517089843750000e+03) (39, -1.04615063476562500000e+03) (40, -4.57061862945556640625e+00) (41, -6.73919320106506347656e-01) (42, 6.42138957977294921875e+00) (43, 1.09148681640625000000e+02) (44, 1.50000000000000000000e+03) (45, -1.17559631347656250000e+02) (46, -1.70434906005859375000e+02) (47, 1.89795043945312500000e+02) (48, 3.67457542419433593750e+01) (49, 1.49969494628906250000e+03) (50, 1.50000000000000000000e+03) (51, 1.50000000000000000000e+03) (52, -1.31618789672851562500e+02) (53, 5.92989845275878906250e+01) (54, -1.52490509033203125000e+02) (55, -1.04615063476562500000e+03) (56, 4.02380905151367187500e+01) (57, -3.88105468750000000000e+01) (58, 4.38386726379394531250e+01) (59, 5.48731445312500000000e+02) (60, -9.97463912963867187500e+01) (61, 6.73881149291992187500e+01) (62, -1.72033233642578125000e+01) (63, -1.85669879913330078125e+01) (64, -4.49414443969726562500e+00) (65, -3.13428592681884765625e+00) (66, 3.32688331604003906250e+00) (67, 3.44837594032287597656e+00) (68, 3.08590960502624511719e+00) (65, 8.72299003601074218750e+00) (66, -9.04931354522705078125e+00) (67, -1.08049440383911132812e+01) (68, 3.48936319351196289062e+00) 
